<?xml version="1.0"?>
<opencv_storage>
<cascade>
  <stageType>BOOST</stageType>
  <featureType>HAAR</featureType>
  <height>24</height>
  <width>24</width>
  <stageParams>
    <boostType>GAB</boostType>
    <minHitRate>9.9500000476837158e-01</minHitRate>
    <maxFalseAlarm>5.0000000000000000e-01</maxFalseAlarm>
    <weightTrimRate>9.4999999999999996e-01</weightTrimRate>
    <maxDepth>1</maxDepth>
    <maxWeakCount>100</maxWeakCount></stageParams>
  <featureParams>
    <maxCatCount>0</maxCatCount>
    <featSize>1</featSize>
    <mode>BASIC</mode></featureParams>
  <stageNum>40</stageNum>
  <stages>
    <!-- stage 0 -->
    <_>
      <maxWeakCount>8</maxWeakCount>
      <stageThreshold>-8.4117817878723145e-01</stageThreshold>
      <weakClassifiers>
        <_>
          <internalNodes>
            0 -1 849 -6.9374248385429382e-02</internalNodes>
          <leafValues>
            -6.0000002384185791e-01 5.4619884490966797e-01</leafValues></_>
        <_>
          <internalNodes>
            0 -1 975 1.6249489039182663e-02</internalNodes>
          <leafValues>
            -2.2442860901355743e-01 8.0210471153259277e-01</leafValues></_>
        <_>
          <internalNodes>
            0 -1 67 2.2102925181388855e-01</internalNodes>
          <leafValues>
            2.5896999239921570e-01 -8.0407196283340454e-01</leafValues></_>
        <_>
          <internalNodes>
            0 -1 998 -1.4628382399678230e-02</internalNodes>
          <leafValues>
            5.8962875604629517e-01 -3.0042609572410583e-01</leafValues></_>
        <_>
          <internalNodes>
            0 -1 35 -2.9113328084349632e-02</internalNodes>
          <leafValues>
            7.6837384700775146e-01 -1.9823448359966278e-01</leafValues></_>
        <_>
          <internalNodes>
            0 -1 145 1.6158651560544968e-02</internalNodes>
          <leafValues>
            -2.9136064648628235e-01 6.8222320079803467e-01</leafValues></_>
        <_>
          <internalNodes>
            0 -1 383 9.4241341575980186e-03</internalNodes>
          <leafValues>
            -2.3079736530780792e-01 5.9179759025573730e-01</leafValues></_>
        <_>
          <internalNodes>
            0 -1 1022 3.0707722529768944e-02</internalNodes>
          <leafValues>
            -2.2848480939865112e-01 6.8419677019119263e-01</leafValues></_></weakClassifiers></_>
    <!-- stage 1 -->
    <_>
      <maxWeakCount>15</maxWeakCount>
      <stageThreshold>-7.7161610126495361e-01</stageThreshold>
      <weakClassifiers>
        <_>
          <internalNodes>
            0 -1 775 -5.1072038710117340e-02</internalNodes>
          <leafValues>
            -7.0175439119338989e-01 4.5940169692039490e-01</leafValues></_>
        <_>
          <internalNodes>
            0 -1 104 -2.8955843299627304e-02</internalNodes>
          <leafValues>
            7.2160410881042480e-01 -1.8144133687019348e-01</leafValues></_>
        <_>
          <internalNodes>
            0 -1 878 -4.4396653771400452e-02</internalNodes>
          <leafValues>
            7.4840086698532104e-01 -1.4392647147178650e-01</leafValues></_>
        <_>
          <internalNodes>
            0 -1 139 4.2153283953666687e-02</internalNodes>
          <leafValues>
            -1.2917585670948029e-01 7.7090221643447876e-01</leafValues></_>
        <_>
          <internalNodes>
            0 -1 976 7.1345224976539612e-02</internalNodes>
          <leafValues>
            -1.8782213330268860e-01 6.9394749402999878e-01</leafValues></_>
        <_>
          <internalNodes>
            0 -1 1052 -1.4177681878209114e-02</internalNodes>
          <leafValues>
            5.7189178466796875e-01 -2.1399472653865814e-01</leafValues></_>
        <_>
          <internalNodes>
            0 -1 653 -1.8411532044410706e-02</internalNodes>
          <leafValues>
            5.8063912391662598e-01 -1.5853647887706757e-01</leafValues></_>
        <_>
          <internalNodes>
            0 -1 448 1.2351726181805134e-02</internalNodes>
          <leafValues>
            -2.4987748265266418e-01 4.8917439579963684e-01</leafValues></_>
        <_>
          <internalNodes>
            0 -1 41 -2.8950259089469910e-02</internalNodes>
          <leafValues>
            1.5645894408226013e-01 -8.9412254095077515e-01</leafValues></_>
        <_>
          <internalNodes>
            0 -1 648 -7.9933919012546539e-02</internalNodes>
          <leafValues>
            -6.7876577377319336e-01 1.3293541967868805e-01</leafValues></_>
        <_>
          <internalNodes>
            0 -1 456 3.0785836279392242e-02</internalNodes>
          <leafValues>
            -1.7019937932491302e-01 6.6565120220184326e-01</leafValues></_>
        <_>
          <internalNodes>
            0 -1 142 -2.5831959210336208e-03</internalNodes>
          <leafValues>
            -6.7791110277175903e-01 1.7920896410942078e-01</leafValues></_>
        <_>
          <internalNodes>
            0 -1 204 3.5945151001214981e-02</internalNodes>
          <leafValues>
            -1.7463460564613342e-01 7.5367510318756104e-01</leafValues></_>
        <_>
          <internalNodes>
            0 -1 208 -1.6614202409982681e-02</internalNodes>
          <leafValues>
            5.4703873395919800e-01 -1.7529219388961792e-01</leafValues></_>
        <_>
          <internalNodes>
            0 -1 825 -4.0594618767499924e-03</internalNodes>
          <leafValues>
            4.7511982917785645e-01 -2.1494720876216888e-01</leafValues></_></weakClassifiers></_>
    <!-- stage 2 -->
    <_>
      <maxWeakCount>18</maxWeakCount>
      <stageThreshold>-6.1180019378662109e-01</stageThreshold>
      <weakClassifiers>
        <_>
          <internalNodes>
            0 -1 950 -3.1690602190792561e-03</internalNodes>
          <leafValues>
            6.6053169965744019e-01 4.8128340393304825e-02</leafValues></_>
        <_>
          <internalNodes>
            0 -1 97 -6.5756194293498993e-02</internalNodes>
          <leafValues>
            6.6263896226882935e-01 -1.4591376483440399e-01</leafValues></_>
        <_>
          <internalNodes>
            0 -1 1024 -2.0421948283910751e-02</internalNodes>
          <leafValues>
            6.9033861160278320e-01 -1.6769753396511078e-01</leafValues></_>
        <_>
          <internalNodes>
            0 -1 974 7.7061966061592102e-02</internalNodes>
          <leafValues>
            -1.6438318789005280e-01 6.3228529691696167e-01</leafValues></_>
        <_>
          <internalNodes>
            0 -1 556 -2.4083524942398071e-02</internalNodes>
          <leafValues>
            6.6006213426589966e-01 -1.2740053236484528e-01</leafValues></_>
        <_>
          <internalNodes>
            0 -1 218 2.2948901169002056e-03</internalNodes>
          <leafValues>
            1.2456166744232178e-01 -7.8488254547119141e-01</leafValues></_>
        <_>
          <internalNodes>
            0 -1 189 -3.0220732092857361e-02</internalNodes>
          <leafValues>
            6.1817365884780884e-01 -1.5801112353801727e-01</leafValues></_>
        <_>
          <internalNodes>
            0 -1 829 8.1802755594253540e-03</internalNodes>
          <leafValues>
            -1.5612068772315979e-01 6.7665386199951172e-01</leafValues></_>
        <_>
          <internalNodes>
            0 -1 899 -1.0783689096570015e-02</internalNodes>
          <leafValues>
            6.1595195531845093e-01 -1.2095257639884949e-01</leafValues></_>
        <_>
          <internalNodes>
            0 -1 260 -2.9011104255914688e-02</internalNodes>
          <leafValues>
            8.0265682935714722e-01 -1.0976781696081161e-01</leafValues></_>
        <_>
          <internalNodes>
            0 -1 764 -1.8378768116235733e-02</internalNodes>
          <leafValues>
            1.7404788732528687e-01 -5.7134008407592773e-01</leafValues></_>
        <_>
          <internalNodes>
            0 -1 192 -9.1125769540667534e-03</internalNodes>
          <leafValues>
            6.3118237257003784e-01 -1.4765928685665131e-01</leafValues></_>
        <_>
          <internalNodes>
            0 -1 215 -8.9518155436962843e-04</internalNodes>
          <leafValues>
            -6.6559469699859619e-01 1.2798450887203217e-01</leafValues></_>
        <_>
          <internalNodes>
            0 -1 214 2.6830289512872696e-02</internalNodes>
          <leafValues>
            -1.7073896527290344e-01 5.0715357065200806e-01</leafValues></_>
        <_>
          <internalNodes>
            0 -1 721 -5.8116018772125244e-01</internalNodes>
          <leafValues>
            -7.9322731494903564e-01 1.2045367807149887e-01</leafValues></_>
        <_>
          <internalNodes>
            0 -1 1132 3.2653268426656723e-03</internalNodes>
          <leafValues>
            7.6127789914608002e-02 -8.4105324745178223e-01</leafValues></_>
        <_>
          <internalNodes>
            0 -1 396 1.0525665245950222e-02</internalNodes>
          <leafValues>
            -1.8201586604118347e-01 4.8239514231681824e-01</leafValues></_>
        <_>
          <internalNodes>
            0 -1 491 -6.8022366613149643e-03</internalNodes>
          <leafValues>
            5.5940473079681396e-01 -1.3971774280071259e-01</leafValues></_></weakClassifiers></_>
    <!-- stage 3 -->
    <_>
      <maxWeakCount>16</maxWeakCount>
      <stageThreshold>-8.7750977277755737e-01</stageThreshold>
      <weakClassifiers>
        <_>
          <internalNodes>
            0 -1 932 -1.1740870773792267e-02</internalNodes>
          <leafValues>
            4.2116183042526245e-01 -6.5116280317306519e-01</leafValues></_>
        <_>
          <internalNodes>
            0 -1 915 -8.3340387791395187e-03</internalNodes>
          <leafValues>
            5.6441837549209595e-01 -1.4413614571094513e-01</leafValues></_>
        <_>
          <internalNodes>
            0 -1 952 1.6257740557193756e-02</internalNodes>
          <leafValues>
            -2.4079377949237823e-01 4.8279571533203125e-01</leafValues></_>
        <_>
          <internalNodes>
            0 -1 608 -1.3328522443771362e-02</internalNodes>
          <leafValues>
            7.1049624681472778e-01 -1.3039201498031616e-01</leafValues></_>
        <_>
          <internalNodes>
            0 -1 626 4.5079444535076618e-03</internalNodes>
          <leafValues>
            -1.6811572015285492e-01 4.7942897677421570e-01</leafValues></_>
        <_>
          <internalNodes>
            0 -1 112 -3.4143272787332535e-02</internalNodes>
          <leafValues>
            5.7488977909088135e-01 -1.4238749444484711e-01</leafValues></_>
        <_>
          <internalNodes>
            0 -1 324 1.4823732897639275e-02</internalNodes>
          <leafValues>
            -2.0406736433506012e-01 5.4508841037750244e-01</leafValues></_>
        <_>
          <internalNodes>
            0 -1 1075 -4.5676156878471375e-03</internalNodes>
          <leafValues>
            4.2805615067481995e-01 -1.8985758721828461e-01</leafValues></_>
        <_>
          <internalNodes>
            0 -1 977 4.4382181018590927e-02</internalNodes>
          <leafValues>
            -2.1111941337585449e-01 5.3263872861862183e-01</leafValues></_>
        <_>
          <internalNodes>
            0 -1 32 -1.8515810370445251e-03</internalNodes>
          <leafValues>
            -4.3777653574943542e-01 2.0925229787826538e-01</leafValues></_>
        <_>
          <internalNodes>
            0 -1 643 3.1754209194332361e-03</internalNodes>
          <leafValues>
            -1.8433132767677307e-01 4.8356080055236816e-01</leafValues></_>
        <_>
          <internalNodes>
            0 -1 332 -9.8256049677729607e-03</internalNodes>
          <leafValues>
            5.5355733633041382e-01 -1.3317626714706421e-01</leafValues></_>
        <_>
          <internalNodes>
            0 -1 243 2.0752746611833572e-02</internalNodes>
          <leafValues>
            -1.3185618817806244e-01 5.6030082702636719e-01</leafValues></_>
        <_>
          <internalNodes>
            0 -1 110 2.3471113294363022e-02</internalNodes>
          <leafValues>
            -1.1645890772342682e-01 6.1948907375335693e-01</leafValues></_>
        <_>
          <internalNodes>
            0 -1 520 -2.9154334217309952e-02</internalNodes>
          <leafValues>
            6.3013803958892822e-01 -1.0831621289253235e-01</leafValues></_>
        <_>
          <internalNodes>
            0 -1 650 9.5900483429431915e-03</internalNodes>
          <leafValues>
            -1.6532090306282043e-01 4.9604263901710510e-01</leafValues></_></weakClassifiers></_>
    <!-- stage 4 -->
    <_>
      <maxWeakCount>21</maxWeakCount>
      <stageThreshold>-7.2502166032791138e-01</stageThreshold>
      <weakClassifiers>
        <_>
          <internalNodes>
            0 -1 408 -2.6025984436273575e-02</internalNodes>
          <leafValues>
            -1.9282510876655579e-01 4.7521162033081055e-01</leafValues></_>
        <_>
          <internalNodes>
            0 -1 731 2.5883615016937256e-02</internalNodes>
          <leafValues>
            1.4970539510250092e-01 -6.4687234163284302e-01</leafValues></_>
        <_>
          <internalNodes>
            0 -1 672 5.0399120664224029e-04</internalNodes>
          <leafValues>
            -2.8281825780868530e-01 2.8856810927391052e-01</leafValues></_>
        <_>
          <internalNodes>
            0 -1 470 7.2347447276115417e-02</internalNodes>
          <leafValues>
            1.1653833836317062e-01 -6.1648464202880859e-01</leafValues></_>
        <_>
          <internalNodes>
            0 -1 210 -3.3038906753063202e-02</internalNodes>
          <leafValues>
            -5.2922958135604858e-01 1.5843364596366882e-01</leafValues></_>
        <_>
          <internalNodes>
            0 -1 1098 8.3779124543070793e-03</internalNodes>
          <leafValues>
            8.4749370813369751e-02 -6.9829207658767700e-01</leafValues></_>
        <_>
          <internalNodes>
            0 -1 860 -1.6429318115115166e-02</internalNodes>
          <leafValues>
            5.0550419092178345e-01 -1.4345563948154449e-01</leafValues></_>
        <_>
          <internalNodes>
            0 -1 1004 4.0822677314281464e-02</internalNodes>
          <leafValues>
            -1.9685977697372437e-01 5.3599888086318970e-01</leafValues></_>
        <_>
          <internalNodes>
            0 -1 1001 -1.8454052507877350e-02</internalNodes>
          <leafValues>
            4.6003344655036926e-01 -1.6975566744804382e-01</leafValues></_>
        <_>
          <internalNodes>
            0 -1 15 -1.0288473963737488e-01</internalNodes>
          <leafValues>
            5.2054905891418457e-01 -1.4605993032455444e-01</leafValues></_>
        <_>
          <internalNodes>
            0 -1 328 6.1689533293247223e-02</internalNodes>
          <leafValues>
            1.4412641525268555e-01 -5.3734660148620605e-01</leafValues></_>
        <_>
          <internalNodes>
            0 -1 36 -8.5348812863230705e-03</internalNodes>
          <leafValues>
            -5.9293639659881592e-01 1.0212581604719162e-01</leafValues></_>
        <_>
          <internalNodes>
            0 -1 206 1.2472567614167929e-03</internalNodes>
          <leafValues>
            1.2956219911575317e-01 -4.7574821114540100e-01</leafValues></_>
        <_>
          <internalNodes>
            0 -1 946 1.5308975242078304e-02</internalNodes>
          <leafValues>
            -8.6913846433162689e-02 8.2070875167846680e-01</leafValues></_>
        <_>
          <internalNodes>
            0 -1 941 2.6429940015077591e-02</internalNodes>
          <leafValues>
            -7.3365308344364166e-02 7.0363640785217285e-01</leafValues></_>
        <_>
          <internalNodes>
            0 -1 235 -6.6867560148239136e-02</internalNodes>
          <leafValues>
            1.3922955095767975e-01 -4.9284046888351440e-01</leafValues></_>
        <_>
          <internalNodes>
            0 -1 704 -2.9886536300182343e-02</internalNodes>
          <leafValues>
            -5.4408055543899536e-01 1.0316347330808640e-01</leafValues></_>
        <_>
          <internalNodes>
            0 -1 13 5.7652018964290619e-02</internalNodes>
          <leafValues>
            7.2271429002285004e-02 -7.1391177177429199e-01</leafValues></_>
        <_>
          <internalNodes>
            0 -1 613 6.2239763792604208e-05</internalNodes>
          <leafValues>
            -2.4399369955062866e-01 2.3219563066959381e-01</leafValues></_>
        <_>
          <internalNodes>
            0 -1 293 -4.8850707709789276e-02</internalNodes>
          <leafValues>
            -7.2922134399414063e-01 8.5168488323688507e-02</leafValues></_>
        <_>
          <internalNodes>
            0 -1 270 5.1152538508176804e-03</internalNodes>
          <leafValues>
            -1.4159612357616425e-01 5.0108432769775391e-01</leafValues></_></weakClassifiers></_>
    <!-- stage 5 -->
    <_>
      <maxWeakCount>16</maxWeakCount>
      <stageThreshold>-7.9983884096145630e-01</stageThreshold>
      <weakClassifiers>
        <_>
          <internalNodes>
            0 -1 529 -2.7191686630249023e-01</internalNodes>
          <leafValues>
            -2.0501138642430305e-02 5.8756136894226074e-01</leafValues></_>
        <_>
          <internalNodes>
            0 -1 886 -1.6862474381923676e-02</internalNodes>
          <leafValues>
            5.9057933092117310e-01 -1.4515984058380127e-01</leafValues></_>
        <_>
          <internalNodes>
            0 -1 642 6.4695756882429123e-03</internalNodes>
          <leafValues>
            -1.1727289855480194e-01 7.6494258642196655e-01</leafValues></_>
        <_>
          <internalNodes>
            0 -1 567 -1.9800469279289246e-02</internalNodes>
          <leafValues>
            7.1441733837127686e-01 -2.0207780599594116e-01</leafValues></_>
        <_>
          <internalNodes>
            0 -1 439 1.3655144721269608e-02</internalNodes>
          <leafValues>
            -1.3109168410301208e-01 5.7714051008224487e-01</leafValues></_>
        <_>
          <internalNodes>
            0 -1 719 2.2734910249710083e-02</internalNodes>
          <leafValues>
            -1.1217684298753738e-01 6.7546707391738892e-01</leafValues></_>
        <_>
          <internalNodes>
            0 -1 315 -2.1280445158481598e-02</internalNodes>
          <leafValues>
            4.9844431877136230e-01 -2.2983615100383759e-01</leafValues></_>
        <_>
          <internalNodes>
            0 -1 560 -3.1169090420007706e-02</internalNodes>
          <leafValues>
            4.0544116497039795e-01 -1.7591822147369385e-01</leafValues></_>
        <_>
          <internalNodes>
            0 -1 962 8.8945706374943256e-04</internalNodes>
          <leafValues>
            -1.7877472937107086e-01 4.1138115525245667e-01</leafValues></_>
        <_>
          <internalNodes>
            0 -1 194 1.2348946183919907e-02</internalNodes>
          <leafValues>
            -1.2303308397531509e-01 5.6887036561965942e-01</leafValues></_>
        <_>
          <internalNodes>
            0 -1 252 -5.7139834389090538e-03</internalNodes>
          <leafValues>
            5.3678661584854126e-01 -1.3949784636497498e-01</leafValues></_>
        <_>
          <internalNodes>
            0 -1 1047 -1.9034778699278831e-02</internalNodes>
          <leafValues>
            -8.3168131113052368e-01 1.0770796984434128e-01</leafValues></_>
        <_>
          <internalNodes>
            0 -1 325 -1.2809030711650848e-02</internalNodes>
          <leafValues>
            6.5681731700897217e-01 -1.4058971405029297e-01</leafValues></_>
        <_>
          <internalNodes>
            0 -1 666 -5.1387641578912735e-03</internalNodes>
          <leafValues>
            3.6570808291435242e-01 -2.0344407856464386e-01</leafValues></_>
        <_>
          <internalNodes>
            0 -1 84 -4.8867687582969666e-02</internalNodes>
          <leafValues>
            4.2944380640983582e-01 -1.8060532212257385e-01</leafValues></_>
        <_>
          <internalNodes>
            0 -1 934 1.3047128450125456e-03</internalNodes>
          <leafValues>
            -1.2584875524044037e-01 5.4296767711639404e-01</leafValues></_></weakClassifiers></_>
    <!-- stage 6 -->
    <_>
      <maxWeakCount>20</maxWeakCount>
      <stageThreshold>-8.6907255649566650e-01</stageThreshold>
      <weakClassifiers>
        <_>
          <internalNodes>
            0 -1 348 1.3228107988834381e-01</internalNodes>
          <leafValues>
            4.0567952394485474e-01 -7.8125000000000000e-01</leafValues></_>
        <_>
          <internalNodes>
            0 -1 326 -7.5213685631752014e-02</internalNodes>
          <leafValues>
            -6.0047578811645508e-01 2.1641808748245239e-01</leafValues></_>
        <_>
          <internalNodes>
            0 -1 799 1.7033178359270096e-02</internalNodes>
          <leafValues>
            -1.7550949752330780e-01 8.4170675277709961e-01</leafValues></_>
        <_>
          <internalNodes>
            0 -1 499 3.2578008249402046e-03</internalNodes>
          <leafValues>
            -2.2524926066398621e-01 4.6908497810363770e-01</leafValues></_>
        <_>
          <internalNodes>
            0 -1 792 -1.6668820381164551e-01</internalNodes>
          <leafValues>
            -3.2474240660667419e-01 2.9254013299942017e-01</leafValues></_>
        <_>
          <internalNodes>
            0 -1 811 -1.9928864203393459e-03</internalNodes>
          <leafValues>
            5.1115781068801880e-01 -1.6653837263584137e-01</leafValues></_>
        <_>
          <internalNodes>
            0 -1 855 1.7129207262769341e-03</internalNodes>
          <leafValues>
            -1.3586945831775665e-01 6.3523805141448975e-01</leafValues></_>
        <_>
          <internalNodes>
            0 -1 272 7.5474502518773079e-03</internalNodes>
          <leafValues>
            -1.5798208117485046e-01 5.0051188468933105e-01</leafValues></_>
        <_>
          <internalNodes>
            0 -1 321 -1.0200674645602703e-02</internalNodes>
          <leafValues>
            5.7743179798126221e-01 -1.2244735658168793e-01</leafValues></_>
        <_>
          <internalNodes>
            0 -1 717 4.5339385978877544e-03</internalNodes>
          <leafValues>
            -1.4952364563941956e-01 4.8758420348167419e-01</leafValues></_>
        <_>
          <internalNodes>
            0 -1 371 1.6506059095263481e-02</internalNodes>
          <leafValues>
            -1.5170453488826752e-01 5.2207201719284058e-01</leafValues></_>
        <_>
          <internalNodes>
            0 -1 1072 -4.4685229659080505e-03</internalNodes>
          <leafValues>
            6.7569202184677124e-01 -1.2489210814237595e-01</leafValues></_>
        <_>
          <internalNodes>
            0 -1 1103 9.9508126731961966e-04</internalNodes>
          <leafValues>
            -1.3464699685573578e-01 5.1887845993041992e-01</leafValues></_>
        <_>
          <internalNodes>
            0 -1 495 -4.0717348456382751e-03</internalNodes>
          <leafValues>
            -1.0579177737236023e-01 6.4871621131896973e-01</leafValues></_>
        <_>
          <internalNodes>
            0 -1 631 2.8299563564360142e-04</internalNodes>
          <leafValues>
            -1.8870924413204193e-01 4.2040938138961792e-01</leafValues></_>
        <_>
          <internalNodes>
            0 -1 547 3.3203238854184747e-04</internalNodes>
          <leafValues>
            -1.5813691914081573e-01 5.1700353622436523e-01</leafValues></_>
        <_>
          <internalNodes>
            0 -1 58 1.7143932636827230e-03</internalNodes>
          <leafValues>
            -1.7823864519596100e-01 3.7747213244438171e-01</leafValues></_>
        <_>
          <internalNodes>
            0 -1 296 -4.2405487038195133e-03</internalNodes>
          <leafValues>
            6.7696613073348999e-01 -1.0757806897163391e-01</leafValues></_>
        <_>
          <internalNodes>
            0 -1 601 -7.7177863568067551e-03</internalNodes>
          <leafValues>
            -1.1609024554491043e-01 5.9075355529785156e-01</leafValues></_>
        <_>
          <internalNodes>
            0 -1 394 7.0599204627797008e-04</internalNodes>
          <leafValues>
            -1.0704302042722702e-01 5.8469927310943604e-01</leafValues></_></weakClassifiers></_>
    <!-- stage 7 -->
    <_>
      <maxWeakCount>23</maxWeakCount>
      <stageThreshold>-6.7625987529754639e-01</stageThreshold>
      <weakClassifiers>
        <_>
          <internalNodes>
            0 -1 5 -9.0935301780700684e-01</internalNodes>
          <leafValues>
            -4.6774193644523621e-01 4.4060474634170532e-01</leafValues></_>
        <_>
          <internalNodes>
            0 -1 404 -2.1613977849483490e-02</internalNodes>
          <leafValues>
            -8.3157762885093689e-02 8.0787903070449829e-01</leafValues></_>
        <_>
          <internalNodes>
            0 -1 818 -1.5146696940064430e-02</internalNodes>
          <leafValues>
            5.6555420160293579e-01 -9.7540698945522308e-02</leafValues></_>
        <_>
          <internalNodes>
            0 -1 28 -7.3324711993336678e-03</internalNodes>
          <leafValues>
            3.7905770540237427e-01 -1.8525607883930206e-01</leafValues></_>
        <_>
          <internalNodes>
            0 -1 475 2.5650057941675186e-03</internalNodes>
          <leafValues>
            -1.9590264558792114e-01 4.0006819367408752e-01</leafValues></_>
        <_>
          <internalNodes>
            0 -1 684 9.7915378864854574e-04</internalNodes>
          <leafValues>
            -1.3505089282989502e-01 4.8372495174407959e-01</leafValues></_>
        <_>
          <internalNodes>
            0 -1 156 -3.2965214923024178e-03</internalNodes>
          <leafValues>
            -6.4867377281188965e-01 1.1714042723178864e-01</leafValues></_>
        <_>
          <internalNodes>
            0 -1 287 -3.8322461768984795e-03</internalNodes>
          <leafValues>
            3.4601885080337524e-01 -2.0202395319938660e-01</leafValues></_>
        <_>
          <internalNodes>
            0 -1 137 3.0079530552029610e-02</internalNodes>
          <leafValues>
            -9.6627071499824524e-02 6.9777697324752808e-01</leafValues></_>
        <_>
          <internalNodes>
            0 -1 53 -2.8166297823190689e-02</internalNodes>
          <leafValues>
            4.7714471817016602e-01 -1.3368090987205505e-01</leafValues></_>
        <_>
          <internalNodes>
            0 -1 705 -2.9822893440723419e-02</internalNodes>
          <leafValues>
            6.2342160940170288e-01 -1.0933689773082733e-01</leafValues></_>
        <_>
          <internalNodes>
            0 -1 1082 -1.2512885034084320e-02</internalNodes>
          <leafValues>
            5.5182164907455444e-01 -1.1846137046813965e-01</leafValues></_>
        <_>
          <internalNodes>
            0 -1 99 -1.7820321023464203e-01</internalNodes>
          <leafValues>
            -5.6520140171051025e-01 1.1154972761869431e-01</leafValues></_>
        <_>
          <internalNodes>
            0 -1 697 -8.7755005806684494e-03</internalNodes>
          <leafValues>
            6.0404485464096069e-01 -1.0084539651870728e-01</leafValues></_>
        <_>
          <internalNodes>
            0 -1 834 -9.0341642498970032e-03</internalNodes>
          <leafValues>
            -9.5863677561283112e-02 6.0074806213378906e-01</leafValues></_>
        <_>
          <internalNodes>
            0 -1 838 -3.3705725800246000e-03</internalNodes>
          <leafValues>
            6.7716538906097412e-01 -9.4529561698436737e-02</leafValues></_>
        <_>
          <internalNodes>
            0 -1 1034 -1.3951074331998825e-02</internalNodes>
          <leafValues>
            6.2509047985076904e-01 -8.2501269876956940e-02</leafValues></_>
        <_>
          <internalNodes>
            0 -1 695 -3.2833780278451741e-04</internalNodes>
          <leafValues>
            3.2965236902236938e-01 -1.8603293597698212e-01</leafValues></_>
        <_>
          <internalNodes>
            0 -1 984 -7.6974090188741684e-03</internalNodes>
          <leafValues>
            -5.4003512859344482e-01 1.2190765887498856e-01</leafValues></_>
        <_>
          <internalNodes>
            0 -1 1091 3.7898840382695198e-03</internalNodes>
          <leafValues>
            6.9475978612899780e-02 -8.3289539813995361e-01</leafValues></_>
        <_>
          <internalNodes>
            0 -1 368 -2.7126528322696686e-02</internalNodes>
          <leafValues>
            6.3830703496932983e-01 -1.1032918095588684e-01</leafValues></_>
        <_>
          <internalNodes>
            0 -1 1010 7.4924705550074577e-03</internalNodes>
          <leafValues>
            -1.4138482511043549e-01 4.9350342154502869e-01</leafValues></_>
        <_>
          <internalNodes>
            0 -1 1150 2.0333742722868919e-03</internalNodes>
          <leafValues>
            1.3319846987724304e-01 -4.9811035394668579e-01</leafValues></_></weakClassifiers></_>
    <!-- stage 8 -->
    <_>
      <maxWeakCount>27</maxWeakCount>
      <stageThreshold>-6.1606079339981079e-01</stageThreshold>
      <weakClassifiers>
        <_>
          <internalNodes>
            0 -1 652 -6.7806467413902283e-02</internalNodes>
          <leafValues>
            -6.6197180747985840e-01 4.0551581978797913e-01</leafValues></_>
        <_>
          <internalNodes>
            0 -1 406 -1.4795588329434395e-02</internalNodes>
          <leafValues>
            -5.9695657342672348e-02 7.1991598606109619e-01</leafValues></_>
        <_>
          <internalNodes>
            0 -1 34 -2.9561698902398348e-03</internalNodes>
          <leafValues>
            -6.6210895776748657e-01 8.5047230124473572e-02</leafValues></_>
        <_>
          <internalNodes>
            0 -1 297 3.2095637172460556e-02</internalNodes>
          <leafValues>
            -1.1552142351865768e-01 6.0187578201293945e-01</leafValues></_>
        <_>
          <internalNodes>
            0 -1 151 1.2095405720174313e-02</internalNodes>
          <leafValues>
            1.0622188448905945e-01 -5.9676182270050049e-01</leafValues></_>
        <_>
          <internalNodes>
            0 -1 653 2.9223907738924026e-02</internalNodes>
          <leafValues>
            -1.0518675297498703e-01 6.3401246070861816e-01</leafValues></_>
        <_>
          <internalNodes>
            0 -1 386 -2.4209607392549515e-02</internalNodes>
          <leafValues>
            4.6653142571449280e-01 -1.2791416049003601e-01</leafValues></_>
        <_>
          <internalNodes>
            0 -1 816 1.4786864630877972e-02</internalNodes>
          <leafValues>
            -2.0572856068611145e-01 3.3305457234382629e-01</leafValues></_>
        <_>
          <internalNodes>
            0 -1 562 9.7452197223901749e-03</internalNodes>
          <leafValues>
            -1.3844238221645355e-01 4.3835681676864624e-01</leafValues></_>
        <_>
          <internalNodes>
            0 -1 852 6.3796695321798325e-03</internalNodes>
          <leafValues>
            -7.4393399059772491e-02 6.8296372890472412e-01</leafValues></_>
        <_>
          <internalNodes>
            0 -1 304 4.1719488799571991e-03</internalNodes>
          <leafValues>
            -1.4122909307479858e-01 4.1784068942070007e-01</leafValues></_>
        <_>
          <internalNodes>
            0 -1 1127 -8.6391845252364874e-04</internalNodes>
          <leafValues>
            -5.7015174627304077e-01 1.0503201186656952e-01</leafValues></_>
        <_>
          <internalNodes>
            0 -1 922 -4.3917488306760788e-02</internalNodes>
          <leafValues>
            -1.0876380652189255e-01 6.0077202320098877e-01</leafValues></_>
        <_>
          <internalNodes>
            0 -1 788 2.2815370466560125e-03</internalNodes>
          <leafValues>
            -1.1404966562986374e-01 4.6822020411491394e-01</leafValues></_>
        <_>
          <internalNodes>
            0 -1 1071 3.4014135599136353e-03</internalNodes>
          <leafValues>
            1.0863664746284485e-01 -5.7811617851257324e-01</leafValues></_>
        <_>
          <internalNodes>
            0 -1 43 2.3679386824369431e-02</internalNodes>
          <leafValues>
            -1.6342675685882568e-01 3.6949813365936279e-01</leafValues></_>
        <_>
          <internalNodes>
            0 -1 82 7.1752436459064484e-02</internalNodes>
          <leafValues>
            -1.2277787178754807e-01 5.0163996219635010e-01</leafValues></_>
        <_>
          <internalNodes>
            0 -1 692 -3.5122842527925968e-03</internalNodes>
          <leafValues>
            4.1221264004707336e-01 -1.2890857458114624e-01</leafValues></_>
        <_>
          <internalNodes>
            0 -1 438 -7.6796978712081909e-02</internalNodes>
          <leafValues>
            -7.2761350870132446e-01 8.4099285304546356e-02</leafValues></_>
        <_>
          <internalNodes>
            0 -1 182 -3.4250281751155853e-02</internalNodes>
          <leafValues>
            2.4742238223552704e-01 -2.3806285858154297e-01</leafValues></_>
        <_>
          <internalNodes>
            0 -1 1108 -4.7725606709718704e-03</internalNodes>
          <leafValues>
            -9.5380097627639771e-02 5.5562561750411987e-01</leafValues></_>
        <_>
          <internalNodes>
            0 -1 699 -5.6486390531063080e-03</internalNodes>
          <leafValues>
            -4.0969485044479370e-01 1.6093188524246216e-01</leafValues></_>
        <_>
          <internalNodes>
            0 -1 288 3.3369846642017365e-02</internalNodes>
          <leafValues>
            1.2243380397558212e-01 -4.1995665431022644e-01</leafValues></_>
        <_>
          <internalNodes>
            0 -1 129 1.5659846365451813e-02</internalNodes>
          <leafValues>
            -1.1166012287139893e-01 5.4642617702484131e-01</leafValues></_>
        <_>
          <internalNodes>
            0 -1 588 1.7517830710858107e-03</internalNodes>
          <leafValues>
            8.9041344821453094e-02 -7.0455348491668701e-01</leafValues></_>
        <_>
          <internalNodes>
            0 -1 44 4.7383904457092285e-03</internalNodes>
          <leafValues>
            7.7682852745056152e-02 -6.2074190378189087e-01</leafValues></_>
        <_>
          <internalNodes>
            0 -1 622 5.6243687868118286e-03</internalNodes>
          <leafValues>
            -2.0784109830856323e-01 2.7580830454826355e-01</leafValues></_></weakClassifiers></_>
    <!-- stage 9 -->
    <_>
      <maxWeakCount>26</maxWeakCount>
      <stageThreshold>-7.3244100809097290e-01</stageThreshold>
      <weakClassifiers>
        <_>
          <internalNodes>
            0 -1 360 -3.3765226602554321e-02</internalNodes>
          <leafValues>
            -4.8837208747863770e-01 4.0663900971412659e-01</leafValues></_>
        <_>
          <internalNodes>
            0 -1 726 -2.3605959489941597e-02</internalNodes>
          <leafValues>
            6.2050110101699829e-01 -6.0364551842212677e-02</leafValues></_>
        <_>
          <internalNodes>
            0 -1 973 -2.8101161122322083e-02</internalNodes>
          <leafValues>
            5.5580949783325195e-01 -1.3675804436206818e-01</leafValues></_>
        <_>
          <internalNodes>
            0 -1 345 -1.4875801280140877e-02</internalNodes>
          <leafValues>
            -1.0048177838325500e-01 6.1190611124038696e-01</leafValues></_>
        <_>
          <internalNodes>
            0 -1 460 6.6181374713778496e-03</internalNodes>
          <leafValues>
            -1.8277101218700409e-01 3.8441631197929382e-01</leafValues></_>
        <_>
          <internalNodes>
            0 -1 435 -2.6786984875798225e-02</internalNodes>
          <leafValues>
            4.8621258139610291e-01 -1.1777050793170929e-01</leafValues></_>
        <_>
          <internalNodes>
            0 -1 155 2.4347003549337387e-02</internalNodes>
          <leafValues>
            -1.0411950945854187e-01 6.0822212696075439e-01</leafValues></_>
        <_>
          <internalNodes>
            0 -1 68 6.2553863972425461e-03</internalNodes>
          <leafValues>
            1.2020770460367203e-01 -6.5353459119796753e-01</leafValues></_>
        <_>
          <internalNodes>
            0 -1 63 -1.0941408574581146e-02</internalNodes>
          <leafValues>
            5.0246459245681763e-01 -1.4067709445953369e-01</leafValues></_>
        <_>
          <internalNodes>
            0 -1 357 2.0836176350712776e-02</internalNodes>
          <leafValues>
            -7.0753149688243866e-02 6.8273544311523438e-01</leafValues></_>
        <_>
          <internalNodes>
            0 -1 1092 9.7350089345127344e-04</internalNodes>
          <leafValues>
            1.3213564455509186e-01 -4.3787419795989990e-01</leafValues></_>
        <_>
          <internalNodes>
            0 -1 677 1.4600005233660340e-03</internalNodes>
          <leafValues>
            -1.7378050088882446e-01 3.4842726588249207e-01</leafValues></_>
        <_>
          <internalNodes>
            0 -1 1070 -7.4329772032797337e-03</internalNodes>
          <leafValues>
            -6.3743662834167480e-01 9.4065755605697632e-02</leafValues></_>
        <_>
          <internalNodes>
            0 -1 1031 4.9733445048332214e-03</internalNodes>
          <leafValues>
            -1.0558734834194183e-01 5.9689271450042725e-01</leafValues></_>
        <_>
          <internalNodes>
            0 -1 1112 -1.2556097935885191e-03</internalNodes>
          <leafValues>
            -4.5407328009605408e-01 1.4833405613899231e-01</leafValues></_>
        <_>
          <internalNodes>
            0 -1 910 9.5561810303479433e-04</internalNodes>
          <leafValues>
            -1.7733143270015717e-01 3.1705793738365173e-01</leafValues></_>
        <_>
          <internalNodes>
            0 -1 909 -6.7331753671169281e-03</internalNodes>
          <leafValues>
            5.5116832256317139e-01 -1.1876495927572250e-01</leafValues></_>
        <_>
          <internalNodes>
            0 -1 701 2.3284929338842630e-03</internalNodes>
          <leafValues>
            1.6599744558334351e-01 -4.1402256488800049e-01</leafValues></_>
        <_>
          <internalNodes>
            0 -1 50 -1.5598561149090528e-03</internalNodes>
          <leafValues>
            -5.2967327833175659e-01 9.7450859844684601e-02</leafValues></_>
        <_>
          <internalNodes>
            0 -1 188 -1.3556522130966187e-01</internalNodes>
          <leafValues>
            -5.7263034582138062e-01 8.8649660348892212e-02</leafValues></_>
        <_>
          <internalNodes>
            0 -1 2 -3.7497088313102722e-02</internalNodes>
          <leafValues>
            5.6768840551376343e-01 -1.1085500568151474e-01</leafValues></_>
        <_>
          <internalNodes>
            0 -1 806 1.6999471932649612e-02</internalNodes>
          <leafValues>
            -7.0794790983200073e-02 6.7786067724227905e-01</leafValues></_>
        <_>
          <internalNodes>
            0 -1 853 -2.0569209009408951e-03</internalNodes>
          <leafValues>
            7.3402470350265503e-01 -7.0859618484973907e-02</leafValues></_>
        <_>
          <internalNodes>
            0 -1 379 1.1368360370397568e-02</internalNodes>
          <leafValues>
            -5.8964431285858154e-02 8.3908772468566895e-01</leafValues></_>
        <_>
          <internalNodes>
            0 -1 783 -1.1364502832293510e-02</internalNodes>
          <leafValues>
            3.4953182935714722e-01 -1.5837986767292023e-01</leafValues></_>
        <_>
          <internalNodes>
            0 -1 980 -8.0972582101821899e-02</internalNodes>
          <leafValues>
            6.4463049173355103e-01 -8.7525039911270142e-02</leafValues></_></weakClassifiers></_>
    <!-- stage 10 -->
    <_>
      <maxWeakCount>29</maxWeakCount>
      <stageThreshold>-6.3768297433853149e-01</stageThreshold>
      <weakClassifiers>
        <_>
          <internalNodes>
            0 -1 596 6.1095014214515686e-02</internalNodes>
          <leafValues>
            4.1568204760551453e-01 -3.1092438101768494e-01</leafValues></_>
        <_>
          <internalNodes>
            0 -1 798 1.3753920793533325e-02</internalNodes>
          <leafValues>
            -6.1351861804723740e-02 7.5638139247894287e-01</leafValues></_>
        <_>
          <internalNodes>
            0 -1 875 -3.6059044301509857e-02</internalNodes>
          <leafValues>
            3.4229737520217896e-01 -1.8208532035350800e-01</leafValues></_>
        <_>
          <internalNodes>
            0 -1 996 -8.7131960317492485e-03</internalNodes>
          <leafValues>
            4.3606677651405334e-01 -1.1900269240140915e-01</leafValues></_>
        <_>
          <internalNodes>
            0 -1 997 7.4916332960128784e-03</internalNodes>
          <leafValues>
            -1.7679560184478760e-01 3.3144080638885498e-01</leafValues></_>
        <_>
          <internalNodes>
            0 -1 959 -1.2532050721347332e-02</internalNodes>
          <leafValues>
            5.1348781585693359e-01 -9.9713638424873352e-02</leafValues></_>
        <_>
          <internalNodes>
            0 -1 1088 -1.7143789678812027e-02</internalNodes>
          <leafValues>
            4.7743099927902222e-01 -1.1913909018039703e-01</leafValues></_>
        <_>
          <internalNodes>
            0 -1 75 6.4084649085998535e-02</internalNodes>
          <leafValues>
            -7.2890512645244598e-02 6.8416035175323486e-01</leafValues></_>
        <_>
          <internalNodes>
            0 -1 271 -6.8797334097325802e-03</internalNodes>
          <leafValues>
            4.3299970030784607e-01 -1.2339338660240173e-01</leafValues></_>
        <_>
          <internalNodes>
            0 -1 187 -4.8544071614742279e-03</internalNodes>
          <leafValues>
            3.8138285279273987e-01 -1.5623003244400024e-01</leafValues></_>
        <_>
          <internalNodes>
            0 -1 827 -2.1275050938129425e-02</internalNodes>
          <leafValues>
            3.9335003495216370e-01 -1.3673335313796997e-01</leafValues></_>
        <_>
          <internalNodes>
            0 -1 1041 -2.7687914553098381e-04</internalNodes>
          <leafValues>
            2.8645902872085571e-01 -2.0540127158164978e-01</leafValues></_>
        <_>
          <internalNodes>
            0 -1 517 -2.1029510535299778e-03</internalNodes>
          <leafValues>
            2.8603798151016235e-01 -1.7896319925785065e-01</leafValues></_>
        <_>
          <internalNodes>
            0 -1 894 -1.7650902271270752e-02</internalNodes>
          <leafValues>
            7.4389785528182983e-01 -6.8513281643390656e-02</leafValues></_>
        <_>
          <internalNodes>
            0 -1 455 -2.0334422588348389e-02</internalNodes>
          <leafValues>
            7.2604733705520630e-01 -5.6228809058666229e-02</leafValues></_>
        <_>
          <internalNodes>
            0 -1 295 2.8790719807147980e-02</internalNodes>
          <leafValues>
            9.8560005426406860e-02 -6.4944565296173096e-01</leafValues></_>
        <_>
          <internalNodes>
            0 -1 958 -7.4557582847774029e-03</internalNodes>
          <leafValues>
            7.1513670682907104e-01 -8.0365367233753204e-02</leafValues></_>
        <_>
          <internalNodes>
            0 -1 1064 7.4957691133022308e-02</internalNodes>
          <leafValues>
            -7.1768552064895630e-02 6.1620116233825684e-01</leafValues></_>
        <_>
          <internalNodes>
            0 -1 876 3.5210882779210806e-03</internalNodes>
          <leafValues>
            1.3495852053165436e-01 -3.8958775997161865e-01</leafValues></_>
        <_>
          <internalNodes>
            0 -1 842 -1.9359906436875463e-03</internalNodes>
          <leafValues>
            2.7366259694099426e-01 -1.8625408411026001e-01</leafValues></_>
        <_>
          <internalNodes>
            0 -1 123 -4.1497545316815376e-03</internalNodes>
          <leafValues>
            -7.8546509146690369e-02 6.4172655344009399e-01</leafValues></_>
        <_>
          <internalNodes>
            0 -1 685 -5.4968673735857010e-02</internalNodes>
          <leafValues>
            -6.7637550830841064e-01 9.6937499940395355e-02</leafValues></_>
        <_>
          <internalNodes>
            0 -1 213 -3.4380625933408737e-02</internalNodes>
          <leafValues>
            5.8348280191421509e-01 -1.0564173012971878e-01</leafValues></_>
        <_>
          <internalNodes>
            0 -1 921 -5.4659983143210411e-03</internalNodes>
          <leafValues>
            9.4412066042423248e-02 -6.6089648008346558e-01</leafValues></_>
        <_>
          <internalNodes>
            0 -1 882 -1.8163528293371201e-03</internalNodes>
          <leafValues>
            5.9958636760711670e-01 -9.0755000710487366e-02</leafValues></_>
        <_>
          <internalNodes>
            0 -1 131 -4.4397160410881042e-02</internalNodes>
          <leafValues>
            -4.3249765038490295e-01 1.4384411275386810e-01</leafValues></_>
        <_>
          <internalNodes>
            0 -1 347 2.6146739721298218e-02</internalNodes>
          <leafValues>
            9.4359219074249268e-02 -5.2462971210479736e-01</leafValues></_>
        <_>
          <internalNodes>
            0 -1 1048 -1.2936691753566265e-02</internalNodes>
          <leafValues>
            7.2018757462501526e-02 -6.7110872268676758e-01</leafValues></_>
        <_>
          <internalNodes>
            0 -1 1109 4.5442190021276474e-03</internalNodes>
          <leafValues>
            7.3081679642200470e-02 -5.7297205924987793e-01</leafValues></_></weakClassifiers></_>
    <!-- stage 11 -->
    <_>
      <maxWeakCount>24</maxWeakCount>
      <stageThreshold>-6.0044115781784058e-01</stageThreshold>
      <weakClassifiers>
        <_>
          <internalNodes>
            0 -1 787 4.8632698599249125e-04</internalNodes>
          <leafValues>
            4.3835616111755371e-01 -1.9540229439735413e-01</leafValues></_>
        <_>
          <internalNodes>
            0 -1 20 -5.3766094148159027e-02</internalNodes>
          <leafValues>
            3.7761983275413513e-01 -1.6755647957324982e-01</leafValues></_>
        <_>
          <internalNodes>
            0 -1 281 3.3149321097880602e-03</internalNodes>
          <leafValues>
            -1.5782588720321655e-01 3.0428934097290039e-01</leafValues></_>
        <_>
          <internalNodes>
            0 -1 108 2.2456988226622343e-03</internalNodes>
          <leafValues>
            -1.7025983333587646e-01 3.3402752876281738e-01</leafValues></_>
        <_>
          <internalNodes>
            0 -1 572 1.3704469427466393e-02</internalNodes>
          <leafValues>
            -1.4533551037311554e-01 4.0255796909332275e-01</leafValues></_>
        <_>
          <internalNodes>
            0 -1 604 1.9167165737599134e-03</internalNodes>
          <leafValues>
            -1.7936706542968750e-01 2.7751743793487549e-01</leafValues></_>
        <_>
          <internalNodes>
            0 -1 325 -1.7071666195988655e-02</internalNodes>
          <leafValues>
            6.1926525831222534e-01 -1.4097896218299866e-01</leafValues></_>
        <_>
          <internalNodes>
            0 -1 161 -2.5210245512425900e-03</internalNodes>
          <leafValues>
            -5.3554356098175049e-01 1.4344850182533264e-01</leafValues></_>
        <_>
          <internalNodes>
            0 -1 361 4.2489203042350709e-04</internalNodes>
          <leafValues>
            -2.2022236883640289e-01 2.4620401859283447e-01</leafValues></_>
        <_>
          <internalNodes>
            0 -1 269 -1.0563167743384838e-03</internalNodes>
          <leafValues>
            -6.5484690666198730e-01 9.7990520298480988e-02</leafValues></_>
        <_>
          <internalNodes>
            0 -1 681 -3.9197755977511406e-03</internalNodes>
          <leafValues>
            6.3269764184951782e-01 -9.9254183471202850e-02</leafValues></_>
        <_>
          <internalNodes>
            0 -1 501 -2.5389213114976883e-02</internalNodes>
          <leafValues>
            -4.3243807554244995e-01 1.3926041126251221e-01</leafValues></_>
        <_>
          <internalNodes>
            0 -1 378 -5.2161253988742828e-03</internalNodes>
          <leafValues>
            -8.4417515993118286e-01 6.6356256604194641e-02</leafValues></_>
        <_>
          <internalNodes>
            0 -1 923 -8.2303266972303391e-03</internalNodes>
          <leafValues>
            7.8852224349975586e-01 -7.9331591725349426e-02</leafValues></_>
        <_>
          <internalNodes>
            0 -1 720 1.6126682981848717e-02</internalNodes>
          <leafValues>
            -1.1537685245275497e-01 4.4789329171180725e-01</leafValues></_>
        <_>
          <internalNodes>
            0 -1 917 1.2544060125946999e-02</internalNodes>
          <leafValues>
            -1.7308142781257629e-01 4.6973615884780884e-01</leafValues></_>
        <_>
          <internalNodes>
            0 -1 248 1.2892112135887146e-02</internalNodes>
          <leafValues>
            -1.4834983646869659e-01 3.6896058917045593e-01</leafValues></_>
        <_>
          <internalNodes>
            0 -1 965 -6.4880415797233582e-02</internalNodes>
          <leafValues>
            4.2166498303413391e-01 -1.3530097901821136e-01</leafValues></_>
        <_>
          <internalNodes>
            0 -1 16 -1.9965344667434692e-01</internalNodes>
          <leafValues>
            5.6158173084259033e-01 -9.0613797307014465e-02</leafValues></_>
        <_>
          <internalNodes>
            0 -1 1143 -1.3720972929149866e-03</internalNodes>
          <leafValues>
            -7.8024244308471680e-01 8.6265839636325836e-02</leafValues></_>
        <_>
          <internalNodes>
            0 -1 848 -2.0549455657601357e-02</internalNodes>
          <leafValues>
            5.7119542360305786e-01 -1.1003720015287399e-01</leafValues></_>
        <_>
          <internalNodes>
            0 -1 773 1.0241764038801193e-01</internalNodes>
          <leafValues>
            -1.3062867522239685e-01 4.3599197268486023e-01</leafValues></_>
        <_>
          <internalNodes>
            0 -1 850 -1.8495403928682208e-03</internalNodes>
          <leafValues>
            5.6916046142578125e-01 -1.0402207076549530e-01</leafValues></_>
        <_>
          <internalNodes>
            0 -1 808 2.0375359803438187e-02</internalNodes>
          <leafValues>
            -1.6574801504611969e-01 2.9876792430877686e-01</leafValues></_></weakClassifiers></_>
    <!-- stage 12 -->
    <_>
      <maxWeakCount>29</maxWeakCount>
      <stageThreshold>-6.1471170186996460e-01</stageThreshold>
      <weakClassifiers>
        <_>
          <internalNodes>
            0 -1 337 -7.7411085367202759e-02</internalNodes>
          <leafValues>
            1.8378378450870514e-01 6.9032257795333862e-01</leafValues></_>
        <_>
          <internalNodes>
            0 -1 283 -1.2743124738335609e-02</internalNodes>
          <leafValues>
            5.5766654014587402e-01 -8.8554553687572479e-02</leafValues></_>
        <_>
          <internalNodes>
            0 -1 987 -1.2272891588509083e-02</internalNodes>
          <leafValues>
            4.3357858061790466e-01 -1.6004908084869385e-01</leafValues></_>
        <_>
          <internalNodes>
            0 -1 344 3.0503846704959869e-02</internalNodes>
          <leafValues>
            -8.8173657655715942e-02 6.8402737379074097e-01</leafValues></_>
        <_>
          <internalNodes>
            0 -1 1087 2.6824364438652992e-02</internalNodes>
          <leafValues>
            -1.0082441568374634e-01 5.4055184125900269e-01</leafValues></_>
        <_>
          <internalNodes>
            0 -1 233 -8.6204782128334045e-03</internalNodes>
          <leafValues>
            -9.7447119653224945e-02 6.3254290819168091e-01</leafValues></_>
        <_>
          <internalNodes>
            0 -1 658 -4.6166412532329559e-02</internalNodes>
          <leafValues>
            -6.9486695528030396e-01 1.0728265345096588e-01</leafValues></_>
        <_>
          <internalNodes>
            0 -1 144 3.7938587367534637e-02</internalNodes>
          <leafValues>
            -1.2985512614250183e-01 4.6186631917953491e-01</leafValues></_>
        <_>
          <internalNodes>
            0 -1 587 8.4826625883579254e-02</internalNodes>
          <leafValues>
            1.1199536919593811e-01 -4.9660167098045349e-01</leafValues></_>
        <_>
          <internalNodes>
            0 -1 217 6.5051899291574955e-03</internalNodes>
          <leafValues>
            -1.3125400245189667e-01 4.3944302201271057e-01</leafValues></_>
        <_>
          <internalNodes>
            0 -1 668 -3.6653880961239338e-03</internalNodes>
          <leafValues>
            5.0328624248504639e-01 -9.2046946287155151e-02</leafValues></_>
        <_>
          <internalNodes>
            0 -1 420 -1.6483817249536514e-02</internalNodes>
          <leafValues>
            -4.0393140912055969e-01 1.3523338735103607e-01</leafValues></_>
        <_>
          <internalNodes>
            0 -1 885 1.7767500132322311e-02</internalNodes>
          <leafValues>
            -6.4114741981029510e-02 8.5188978910446167e-01</leafValues></_>
        <_>
          <internalNodes>
            0 -1 662 2.7459427714347839e-02</internalNodes>
          <leafValues>
            -1.0795845836400986e-01 4.3437662720680237e-01</leafValues></_>
        <_>
          <internalNodes>
            0 -1 926 2.2541711106896400e-02</internalNodes>
          <leafValues>
            -8.2207307219505310e-02 5.5669337511062622e-01</leafValues></_>
        <_>
          <internalNodes>
            0 -1 929 -2.1884061861783266e-03</internalNodes>
          <leafValues>
            2.8375446796417236e-01 -2.0633980631828308e-01</leafValues></_>
        <_>
          <internalNodes>
            0 -1 1119 -1.0084130335599184e-03</internalNodes>
          <leafValues>
            -5.1440119743347168e-01 1.0759458690881729e-01</leafValues></_>
        <_>
          <internalNodes>
            0 -1 410 1.4068745076656342e-02</internalNodes>
          <leafValues>
            -7.1079313755035400e-02 7.3841422796249390e-01</leafValues></_>
        <_>
          <internalNodes>
            0 -1 1006 -5.8039287105202675e-03</internalNodes>
          <leafValues>
            -5.6422603130340576e-01 9.9695332348346710e-02</leafValues></_>
        <_>
          <internalNodes>
            0 -1 244 -2.3261955007910728e-02</internalNodes>
          <leafValues>
            5.5558127164840698e-01 -9.5949232578277588e-02</leafValues></_>
        <_>
          <internalNodes>
            0 -1 338 -2.3461846634745598e-02</internalNodes>
          <leafValues>
            -9.4545498490333557e-02 4.6205323934555054e-01</leafValues></_>
        <_>
          <internalNodes>
            0 -1 1049 4.1771732503548265e-04</internalNodes>
          <leafValues>
            -1.2636947631835938e-01 4.2137736082077026e-01</leafValues></_>
        <_>
          <internalNodes>
            0 -1 1121 4.4361427426338196e-03</internalNodes>
          <leafValues>
            6.6606923937797546e-02 -7.9751664400100708e-01</leafValues></_>
        <_>
          <internalNodes>
            0 -1 858 -1.6122839879244566e-03</internalNodes>
          <leafValues>
            6.9983798265457153e-01 -8.0066874623298645e-02</leafValues></_>
        <_>
          <internalNodes>
            0 -1 55 3.2542068511247635e-03</internalNodes>
          <leafValues>
            1.0096585005521774e-01 -4.9229651689529419e-01</leafValues></_>
        <_>
          <internalNodes>
            0 -1 913 1.9918205216526985e-03</internalNodes>
          <leafValues>
            -1.1553999036550522e-01 4.3169298768043518e-01</leafValues></_>
        <_>
          <internalNodes>
            0 -1 436 -5.8853879570960999e-02</internalNodes>
          <leafValues>
            4.3267983198165894e-01 -1.1318717151880264e-01</leafValues></_>
        <_>
          <internalNodes>
            0 -1 920 -4.8987460322678089e-03</internalNodes>
          <leafValues>
            -6.2991254031658173e-02 7.6816821098327637e-01</leafValues></_>
        <_>
          <internalNodes>
            0 -1 91 9.7977519035339355e-03</internalNodes>
          <leafValues>
            9.0590119361877441e-02 -6.9955068826675415e-01</leafValues></_></weakClassifiers></_>
    <!-- stage 13 -->
    <_>
      <maxWeakCount>29</maxWeakCount>
      <stageThreshold>-6.6995775699615479e-01</stageThreshold>
      <weakClassifiers>
        <_>
          <internalNodes>
            0 -1 452 -6.2839955091476440e-02</internalNodes>
          <leafValues>
            -5.1428574323654175e-01 3.9387756586074829e-01</leafValues></_>
        <_>
          <internalNodes>
            0 -1 389 8.1340447068214417e-03</internalNodes>
          <leafValues>
            -1.4637833833694458e-01 4.0174773335456848e-01</leafValues></_>
        <_>
          <internalNodes>
            0 -1 541 1.0279433336108923e-03</internalNodes>
          <leafValues>
            -2.5563061237335205e-01 2.5399246811866760e-01</leafValues></_>
        <_>
          <internalNodes>
            0 -1 365 1.2175391428172588e-02</internalNodes>
          <leafValues>
            -9.6518158912658691e-02 6.2479597330093384e-01</leafValues></_>
        <_>
          <internalNodes>
            0 -1 396 -2.1226231008768082e-02</internalNodes>
          <leafValues>
            7.5949013233184814e-01 -9.2653386294841766e-02</leafValues></_>
        <_>
          <internalNodes>
            0 -1 318 -2.9845451936125755e-02</internalNodes>
          <leafValues>
            5.0239831209182739e-01 -1.2115438282489777e-01</leafValues></_>
        <_>
          <internalNodes>
            0 -1 504 -3.2002612948417664e-02</internalNodes>
          <leafValues>
            5.2662068605422974e-01 -9.3198172748088837e-02</leafValues></_>
        <_>
          <internalNodes>
            0 -1 1023 3.0588533729314804e-02</internalNodes>
          <leafValues>
            -1.4538794755935669e-01 3.3644503355026245e-01</leafValues></_>
        <_>
          <internalNodes>
            0 -1 901 -1.0012905299663544e-01</internalNodes>
          <leafValues>
            4.0706801414489746e-01 -1.4948883652687073e-01</leafValues></_>
        <_>
          <internalNodes>
            0 -1 592 -8.7904669344425201e-03</internalNodes>
          <leafValues>
            4.5032918453216553e-01 -1.2090571969747543e-01</leafValues></_>
        <_>
          <internalNodes>
            0 -1 905 9.8005924373865128e-03</internalNodes>
          <leafValues>
            -8.3699040114879608e-02 5.2744752168655396e-01</leafValues></_>
        <_>
          <internalNodes>
            0 -1 100 -2.3349260445684195e-03</internalNodes>
          <leafValues>
            -5.3758442401885986e-01 1.0211176425218582e-01</leafValues></_>
        <_>
          <internalNodes>
            0 -1 238 -1.4681418426334858e-02</internalNodes>
          <leafValues>
            7.2572690248489380e-01 -7.0328883826732635e-02</leafValues></_>
        <_>
          <internalNodes>
            0 -1 177 2.6290582027286291e-03</internalNodes>
          <leafValues>
            1.8173675239086151e-01 -3.1693220138549805e-01</leafValues></_>
        <_>
          <internalNodes>
            0 -1 11 -6.7099258303642273e-03</internalNodes>
          <leafValues>
            -7.0061095058917999e-02 7.5368440151214600e-01</leafValues></_>
        <_>
          <internalNodes>
            0 -1 27 -3.2490760087966919e-02</internalNodes>
          <leafValues>
            6.4529663324356079e-01 -6.4218975603580475e-02</leafValues></_>
        <_>
          <internalNodes>
            0 -1 623 -8.0656297504901886e-02</internalNodes>
          <leafValues>
            6.7062348127365112e-01 -7.5865738093852997e-02</leafValues></_>
        <_>
          <internalNodes>
            0 -1 523 1.0430373251438141e-01</internalNodes>
          <leafValues>
            8.6308144032955170e-02 -7.1578317880630493e-01</leafValues></_>
        <_>
          <internalNodes>
            0 -1 628 1.2633188161998987e-03</internalNodes>
          <leafValues>
            -1.1180672049522400e-01 5.0576138496398926e-01</leafValues></_>
        <_>
          <internalNodes>
            0 -1 340 9.8963044583797455e-03</internalNodes>
          <leafValues>
            1.8120108544826508e-01 -2.9570737481117249e-01</leafValues></_>
        <_>
          <internalNodes>
            0 -1 237 -9.7853702027350664e-04</internalNodes>
          <leafValues>
            -6.1197805404663086e-01 8.9689768850803375e-02</leafValues></_>
        <_>
          <internalNodes>
            0 -1 362 5.6883515790104866e-03</internalNodes>
          <leafValues>
            -8.5923165082931519e-02 6.1009240150451660e-01</leafValues></_>
        <_>
          <internalNodes>
            0 -1 146 2.9542457195930183e-04</internalNodes>
          <leafValues>
            -2.1729163825511932e-01 2.3252683877944946e-01</leafValues></_>
        <_>
          <internalNodes>
            0 -1 395 -1.2740911915898323e-02</internalNodes>
          <leafValues>
            6.9170153141021729e-01 -8.1897333264350891e-02</leafValues></_>
        <_>
          <internalNodes>
            0 -1 573 1.2305960059165955e-02</internalNodes>
          <leafValues>
            -5.1724672317504883e-02 7.4501001834869385e-01</leafValues></_>
        <_>
          <internalNodes>
            0 -1 203 -7.2865991387516260e-04</internalNodes>
          <leafValues>
            -4.1392460465431213e-01 1.4496663212776184e-01</leafValues></_>
        <_>
          <internalNodes>
            0 -1 343 6.3233459368348122e-03</internalNodes>
          <leafValues>
            -8.2785286009311676e-02 6.2585985660552979e-01</leafValues></_>
        <_>
          <internalNodes>
            0 -1 763 -9.2666819691658020e-02</internalNodes>
          <leafValues>
            -7.1824443340301514e-01 8.4105454385280609e-02</leafValues></_>
        <_>
          <internalNodes>
            0 -1 675 8.7457406334578991e-04</internalNodes>
          <leafValues>
            -1.6236293315887451e-01 2.9036539793014526e-01</leafValues></_></weakClassifiers></_>
    <!-- stage 14 -->
    <_>
      <maxWeakCount>25</maxWeakCount>
      <stageThreshold>-5.9983724355697632e-01</stageThreshold>
      <weakClassifiers>
        <_>
          <internalNodes>
            0 -1 102 -1.1747087538242340e-01</internalNodes>
          <leafValues>
            -4.3209877610206604e-01 3.9731681346893311e-01</leafValues></_>
        <_>
          <internalNodes>
            0 -1 148 9.6035912632942200e-02</internalNodes>
          <leafValues>
            1.8695142865180969e-01 -4.9680030345916748e-01</leafValues></_>
        <_>
          <internalNodes>
            0 -1 985 7.5819734483957291e-03</internalNodes>
          <leafValues>
            -1.4855706691741943e-01 6.2920451164245605e-01</leafValues></_>
        <_>
          <internalNodes>
            0 -1 1120 1.3989440631121397e-03</internalNodes>
          <leafValues>
            -2.2376751899719238e-01 3.2481598854064941e-01</leafValues></_>
        <_>
          <internalNodes>
            0 -1 889 -1.2745035346597433e-03</internalNodes>
          <leafValues>
            2.0279768109321594e-01 -3.3129549026489258e-01</leafValues></_>
        <_>
          <internalNodes>
            0 -1 1030 -1.0332141537219286e-03</internalNodes>
          <leafValues>
            -4.1934865713119507e-01 1.7329794168472290e-01</leafValues></_>
        <_>
          <internalNodes>
            0 -1 888 6.9404141977429390e-03</internalNodes>
          <leafValues>
            -1.2373602390289307e-01 4.9856689572334290e-01</leafValues></_>
        <_>
          <internalNodes>
            0 -1 1102 -1.0345365852117538e-02</internalNodes>
          <leafValues>
            -6.8395221233367920e-01 6.0701180249452591e-02</leafValues></_>
        <_>
          <internalNodes>
            0 -1 387 3.4003980457782745e-02</internalNodes>
          <leafValues>
            -1.1790784448385239e-01 5.0022697448730469e-01</leafValues></_>
        <_>
          <internalNodes>
            0 -1 107 4.0214940905570984e-02</internalNodes>
          <leafValues>
            -1.0206295549869537e-01 5.1474869251251221e-01</leafValues></_>
        <_>
          <internalNodes>
            0 -1 286 -1.1814450845122337e-02</internalNodes>
          <leafValues>
            6.6301023960113525e-01 -7.6264783740043640e-02</leafValues></_>
        <_>
          <internalNodes>
            0 -1 535 3.3391104079782963e-04</internalNodes>
          <leafValues>
            -2.6171478629112244e-01 2.2063270211219788e-01</leafValues></_>
        <_>
          <internalNodes>
            0 -1 42 1.4500126417260617e-04</internalNodes>
          <leafValues>
            1.7493966221809387e-01 -3.1893938779830933e-01</leafValues></_>
        <_>
          <internalNodes>
            0 -1 310 -9.2858057469129562e-03</internalNodes>
          <leafValues>
            2.5427314639091492e-01 -2.5039732456207275e-01</leafValues></_>
        <_>
          <internalNodes>
            0 -1 1149 -4.3332576751708984e-03</internalNodes>
          <leafValues>
            -4.3154466152191162e-01 1.1937649548053741e-01</leafValues></_>
        <_>
          <internalNodes>
            0 -1 570 3.1120730563998222e-03</internalNodes>
          <leafValues>
            -1.3789072632789612e-01 3.8864225149154663e-01</leafValues></_>
        <_>
          <internalNodes>
            0 -1 822 -6.7639197222888470e-03</internalNodes>
          <leafValues>
            6.7131912708282471e-01 -8.7999746203422546e-02</leafValues></_>
        <_>
          <internalNodes>
            0 -1 384 -5.9755317866802216e-02</internalNodes>
          <leafValues>
            -5.0681883096694946e-01 1.1429067701101303e-01</leafValues></_>
        <_>
          <internalNodes>
            0 -1 392 1.8825147300958633e-02</internalNodes>
          <leafValues>
            1.7756536602973938e-01 -3.2544165849685669e-01</leafValues></_>
        <_>
          <internalNodes>
            0 -1 123 -2.8167322743684053e-03</internalNodes>
          <leafValues>
            -7.0417322218418121e-02 7.0246893167495728e-01</leafValues></_>
        <_>
          <internalNodes>
            0 -1 119 -2.9638074338436127e-03</internalNodes>
          <leafValues>
            -5.3097045421600342e-01 1.0908329486846924e-01</leafValues></_>
        <_>
          <internalNodes>
            0 -1 1090 7.3655610904097557e-03</internalNodes>
          <leafValues>
            -9.6582710742950439e-02 5.4834127426147461e-01</leafValues></_>
        <_>
          <internalNodes>
            0 -1 575 -3.7670852616429329e-03</internalNodes>
          <leafValues>
            8.1149774789810181e-01 -5.6489840149879456e-02</leafValues></_>
        <_>
          <internalNodes>
            0 -1 1032 1.5582571737468243e-02</internalNodes>
          <leafValues>
            -9.3964800238609314e-02 5.1399993896484375e-01</leafValues></_>
        <_>
          <internalNodes>
            0 -1 1037 -2.7219546027481556e-03</internalNodes>
          <leafValues>
            -5.5376845598220825e-01 1.0317635536193848e-01</leafValues></_></weakClassifiers></_>
    <!-- stage 15 -->
    <_>
      <maxWeakCount>29</maxWeakCount>
      <stageThreshold>-6.2200850248336792e-01</stageThreshold>
      <weakClassifiers>
        <_>
          <internalNodes>
            0 -1 778 3.4533172845840454e-02</internalNodes>
          <leafValues>
            3.5476955771446228e-01 -4.6268656849861145e-01</leafValues></_>
        <_>
          <internalNodes>
            0 -1 415 1.5258658677339554e-02</internalNodes>
          <leafValues>
            -1.8069070577621460e-01 3.4103235602378845e-01</leafValues></_>
        <_>
          <internalNodes>
            0 -1 364 2.2874228656291962e-02</internalNodes>
          <leafValues>
            -1.8618449568748474e-01 3.4401443600654602e-01</leafValues></_>
        <_>
          <internalNodes>
            0 -1 689 -1.8884502351284027e-02</internalNodes>
          <leafValues>
            5.7812136411666870e-01 -1.5856948494911194e-01</leafValues></_>
        <_>
          <internalNodes>
            0 -1 891 -4.6350150369107723e-03</internalNodes>
          <leafValues>
            5.0118589401245117e-01 -8.5372723639011383e-02</leafValues></_>
        <_>
          <internalNodes>
            0 -1 931 6.5149273723363876e-03</internalNodes>
          <leafValues>
            -5.5515088140964508e-02 7.0058655738830566e-01</leafValues></_>
        <_>
          <internalNodes>
            0 -1 88 -5.0296135246753693e-02</internalNodes>
          <leafValues>
            2.9783773422241211e-01 -2.0708227157592773e-01</leafValues></_>
        <_>
          <internalNodes>
            0 -1 31 1.9548777490854263e-02</internalNodes>
          <leafValues>
            -1.0118617862462997e-01 4.4754999876022339e-01</leafValues></_>
        <_>
          <internalNodes>
            0 -1 873 -1.9240505993366241e-02</internalNodes>
          <leafValues>
            2.9308468103408813e-01 -1.8433904647827148e-01</leafValues></_>
        <_>
          <internalNodes>
            0 -1 776 -1.8378321081399918e-02</internalNodes>
          <leafValues>
            3.9101174473762512e-01 -1.3704967498779297e-01</leafValues></_>
        <_>
          <internalNodes>
            0 -1 1068 5.6641426635906100e-04</internalNodes>
          <leafValues>
            1.5990237891674042e-01 -3.2325592637062073e-01</leafValues></_>
        <_>
          <internalNodes>
            0 -1 590 5.3061828017234802e-02</internalNodes>
          <leafValues>
            9.0779259800910950e-02 -5.4680216312408447e-01</leafValues></_>
        <_>
          <internalNodes>
            0 -1 991 -9.0678292326629162e-04</internalNodes>
          <leafValues>
            1.9878964126110077e-01 -2.7493077516555786e-01</leafValues></_>
        <_>
          <internalNodes>
            0 -1 538 1.2790109030902386e-03</internalNodes>
          <leafValues>
            -1.5019313991069794e-01 3.3473029732704163e-01</leafValues></_>
        <_>
          <internalNodes>
            0 -1 402 -3.5308994352817535e-02</internalNodes>
          <leafValues>
            9.4123178720474243e-01 -5.0548180937767029e-02</leafValues></_>
        <_>
          <internalNodes>
            0 -1 966 -4.6208046376705170e-02</internalNodes>
          <leafValues>
            -7.0478206872940063e-01 8.9253090322017670e-02</leafValues></_>
        <_>
          <internalNodes>
            0 -1 8 -8.5300119826570153e-04</internalNodes>
          <leafValues>
            -4.0951451659202576e-01 1.1662200093269348e-01</leafValues></_>
        <_>
          <internalNodes>
            0 -1 992 -1.7745830118656158e-02</internalNodes>
          <leafValues>
            5.1844984292984009e-01 -1.0365104675292969e-01</leafValues></_>
        <_>
          <internalNodes>
            0 -1 837 -2.9002337250858545e-03</internalNodes>
          <leafValues>
            -5.5673282593488693e-02 6.8814098834991455e-01</leafValues></_>
        <_>
          <internalNodes>
            0 -1 647 -3.9960537105798721e-03</internalNodes>
          <leafValues>
            5.0576257705688477e-01 -8.2568012177944183e-02</leafValues></_>
        <_>
          <internalNodes>
            0 -1 219 -5.6147957220673561e-03</internalNodes>
          <leafValues>
            -5.4584908485412598e-01 9.4669550657272339e-02</leafValues></_>
        <_>
          <internalNodes>
            0 -1 814 -1.0969149880111217e-03</internalNodes>
          <leafValues>
            3.5025656223297119e-01 -1.3992446660995483e-01</leafValues></_>
        <_>
          <internalNodes>
            0 -1 568 1.4148971065878868e-02</internalNodes>
          <leafValues>
            -5.8973956853151321e-02 8.3575487136840820e-01</leafValues></_>
        <_>
          <internalNodes>
            0 -1 7 -7.8507199883460999e-02</internalNodes>
          <leafValues>
            7.9922133684158325e-01 -3.7976372987031937e-02</leafValues></_>
        <_>
          <internalNodes>
            0 -1 490 3.9579309523105621e-03</internalNodes>
          <leafValues>
            -8.4742113947868347e-02 4.7790291905403137e-01</leafValues></_>
        <_>
          <internalNodes>
            0 -1 655 -4.9762153066694736e-03</internalNodes>
          <leafValues>
            -6.6942924261093140e-01 7.2793655097484589e-02</leafValues></_>
        <_>
          <internalNodes>
            0 -1 593 -9.6752867102622986e-03</internalNodes>
          <leafValues>
            3.6874043941497803e-01 -1.1630591750144958e-01</leafValues></_>
        <_>
          <internalNodes>
            0 -1 839 1.1282620020210743e-02</internalNodes>
          <leafValues>
            -5.1280803978443146e-02 7.5458687543869019e-01</leafValues></_>
        <_>
          <internalNodes>
            0 -1 514 8.7026524124667048e-04</internalNodes>
          <leafValues>
            -1.0070452839136124e-01 4.0005591511726379e-01</leafValues></_></weakClassifiers></_>
    <!-- stage 16 -->
    <_>
      <maxWeakCount>28</maxWeakCount>
      <stageThreshold>-7.2304797172546387e-01</stageThreshold>
      <weakClassifiers>
        <_>
          <internalNodes>
            0 -1 152 -4.0101325139403343e-03</internalNodes>
          <leafValues>
            -3.2727271318435669e-01 3.7752810120582581e-01</leafValues></_>
        <_>
          <internalNodes>
            0 -1 880 1.0454837232828140e-01</internalNodes>
          <leafValues>
            -1.0874200612306595e-01 4.3372038006782532e-01</leafValues></_>
        <_>
          <internalNodes>
            0 -1 317 -3.5212963819503784e-02</internalNodes>
          <leafValues>
            -3.0868083238601685e-01 1.9568425416946411e-01</leafValues></_>
        <_>
          <internalNodes>
            0 -1 319 -7.4135204777121544e-03</internalNodes>
          <leafValues>
            -3.5101372003555298e-01 1.2859281897544861e-01</leafValues></_>
        <_>
          <internalNodes>
            0 -1 165 7.5924405828118324e-03</internalNodes>
          <leafValues>
            1.0815587639808655e-01 -5.2681660652160645e-01</leafValues></_>
        <_>
          <internalNodes>
            0 -1 279 6.8709757179021835e-03</internalNodes>
          <leafValues>
            -1.1510082334280014e-01 4.5745503902435303e-01</leafValues></_>
        <_>
          <internalNodes>
            0 -1 936 8.0063231289386749e-03</internalNodes>
          <leafValues>
            -1.3526935875415802e-01 4.4149634242057800e-01</leafValues></_>
        <_>
          <internalNodes>
            0 -1 972 -2.2359728813171387e-02</internalNodes>
          <leafValues>
            5.6972068548202515e-01 -1.0337979346513748e-01</leafValues></_>
        <_>
          <internalNodes>
            0 -1 421 -2.6831965893507004e-02</internalNodes>
          <leafValues>
            5.1322007179260254e-01 -9.4503894448280334e-02</leafValues></_>
        <_>
          <internalNodes>
            0 -1 742 -4.6689575538039207e-03</internalNodes>
          <leafValues>
            -2.9387268424034119e-01 1.7875726521015167e-01</leafValues></_>
        <_>
          <internalNodes>
            0 -1 1055 1.7925204010680318e-03</internalNodes>
          <leafValues>
            1.2068527191877365e-01 -4.5777428150177002e-01</leafValues></_>
        <_>
          <internalNodes>
            0 -1 843 -3.2114414498209953e-03</internalNodes>
          <leafValues>
            2.4178925156593323e-01 -2.1331045031547546e-01</leafValues></_>
        <_>
          <internalNodes>
            0 -1 298 -3.5878308117389679e-02</internalNodes>
          <leafValues>
            6.8489831686019897e-01 -6.9377079606056213e-02</leafValues></_>
        <_>
          <internalNodes>
            0 -1 1035 2.5384300388395786e-03</internalNodes>
          <leafValues>
            1.0680444538593292e-01 -4.9043905735015869e-01</leafValues></_>
        <_>
          <internalNodes>
            0 -1 240 -1.3305984437465668e-02</internalNodes>
          <leafValues>
            -3.3064186573028564e-01 1.5426486730575562e-01</leafValues></_>
        <_>
          <internalNodes>
            0 -1 216 2.1507989149540663e-03</internalNodes>
          <leafValues>
            -1.3150314986705780e-01 4.1732501983642578e-01</leafValues></_>
        <_>
          <internalNodes>
            0 -1 121 -2.4258192628622055e-02</internalNodes>
          <leafValues>
            3.5455486178398132e-01 -1.6562925279140472e-01</leafValues></_>
        <_>
          <internalNodes>
            0 -1 342 -1.1147961020469666e-02</internalNodes>
          <leafValues>
            7.8409320116043091e-01 -4.6276610344648361e-02</leafValues></_>
        <_>
          <internalNodes>
            0 -1 101 2.5110449641942978e-03</internalNodes>
          <leafValues>
            7.9782813787460327e-02 -7.7102106809616089e-01</leafValues></_>
        <_>
          <internalNodes>
            0 -1 473 -9.4052189961075783e-03</internalNodes>
          <leafValues>
            5.2797305583953857e-01 -9.5789909362792969e-02</leafValues></_>
        <_>
          <internalNodes>
            0 -1 330 3.6441306583583355e-03</internalNodes>
          <leafValues>
            -2.1101255714893341e-01 2.7952596545219421e-01</leafValues></_>
        <_>
          <internalNodes>
            0 -1 789 -1.2024554423987865e-02</internalNodes>
          <leafValues>
            -4.6408176422119141e-01 1.1390078067779541e-01</leafValues></_>
        <_>
          <internalNodes>
            0 -1 471 2.5452091358602047e-03</internalNodes>
          <leafValues>
            -1.5454123914241791e-01 4.1006609797477722e-01</leafValues></_>
        <_>
          <internalNodes>
            0 -1 540 -3.8426863029599190e-03</internalNodes>
          <leafValues>
            2.5526955723762512e-01 -2.1327097713947296e-01</leafValues></_>
        <_>
          <internalNodes>
            0 -1 1096 5.4673003032803535e-03</internalNodes>
          <leafValues>
            -8.9531123638153076e-02 5.8737492561340332e-01</leafValues></_>
        <_>
          <internalNodes>
            0 -1 232 -1.2091908138245344e-04</internalNodes>
          <leafValues>
            -2.9330328106880188e-01 1.9689275324344635e-01</leafValues></_>
        <_>
          <internalNodes>
            0 -1 1146 2.6034167967736721e-03</internalNodes>
          <leafValues>
            5.7367537170648575e-02 -9.7050726413726807e-01</leafValues></_>
        <_>
          <internalNodes>
            0 -1 671 -9.8752938210964203e-03</internalNodes>
          <leafValues>
            4.7899195551872253e-01 -1.1984951794147491e-01</leafValues></_></weakClassifiers></_>
    <!-- stage 17 -->
    <_>
      <maxWeakCount>29</maxWeakCount>
      <stageThreshold>-5.9251040220260620e-01</stageThreshold>
      <weakClassifiers>
        <_>
          <internalNodes>
            0 -1 250 2.2100722417235374e-02</internalNodes>
          <leafValues>
            3.7653630971908569e-01 -3.5238096117973328e-01</leafValues></_>
        <_>
          <internalNodes>
            0 -1 534 -1.0267907753586769e-02</internalNodes>
          <leafValues>
            5.7065600156784058e-01 -7.6143100857734680e-02</leafValues></_>
        <_>
          <internalNodes>
            0 -1 485 -4.0223427116870880e-02</internalNodes>
          <leafValues>
            -7.3150224983692169e-02 6.7472374439239502e-01</leafValues></_>
        <_>
          <internalNodes>
            0 -1 256 -2.0571908354759216e-01</internalNodes>
          <leafValues>
            5.4782994091510773e-02 -5.3374600410461426e-01</leafValues></_>
        <_>
          <internalNodes>
            0 -1 66 -1.7759177833795547e-02</internalNodes>
          <leafValues>
            3.0263891816139221e-01 -1.4660695195198059e-01</leafValues></_>
        <_>
          <internalNodes>
            0 -1 451 -1.0792849585413933e-02</internalNodes>
          <leafValues>
            -9.6460320055484772e-02 6.1168211698532104e-01</leafValues></_>
        <_>
          <internalNodes>
            0 -1 431 -4.1218555998057127e-04</internalNodes>
          <leafValues>
            2.4913528561592102e-01 -1.8292388319969177e-01</leafValues></_>
        <_>
          <internalNodes>
            0 -1 453 -9.7135324031114578e-03</internalNodes>
          <leafValues>
            4.6116933226585388e-01 -1.0412208735942841e-01</leafValues></_>
        <_>
          <internalNodes>
            0 -1 229 -9.2653911560773849e-03</internalNodes>
          <leafValues>
            -5.0934058427810669e-01 9.7201801836490631e-02</leafValues></_>
        <_>
          <internalNodes>
            0 -1 641 1.4016479253768921e-02</internalNodes>
          <leafValues>
            9.8121829330921173e-02 -5.0850105285644531e-01</leafValues></_>
        <_>
          <internalNodes>
            0 -1 539 1.6020633280277252e-02</internalNodes>
          <leafValues>
            -8.8099308311939240e-02 5.9630650281906128e-01</leafValues></_>
        <_>
          <internalNodes>
            0 -1 1101 -7.9352520406246185e-03</internalNodes>
          <leafValues>
            4.4387051463127136e-01 -1.1784109473228455e-01</leafValues></_>
        <_>
          <internalNodes>
            0 -1 1057 1.5853766351938248e-02</internalNodes>
          <leafValues>
            -1.1262024194002151e-01 4.5753732323646545e-01</leafValues></_>
        <_>
          <internalNodes>
            0 -1 802 5.6876577436923981e-03</internalNodes>
          <leafValues>
            1.0829218477010727e-01 -5.0112724304199219e-01</leafValues></_>
        <_>
          <internalNodes>
            0 -1 603 4.6388898044824600e-03</internalNodes>
          <leafValues>
            -1.2051343917846680e-01 4.4242614507675171e-01</leafValues></_>
        <_>
          <internalNodes>
            0 -1 1113 -2.4578534066677094e-03</internalNodes>
          <leafValues>
            -6.6046988964080811e-01 7.6871722936630249e-02</leafValues></_>
        <_>
          <internalNodes>
            0 -1 397 9.4880454707890749e-04</internalNodes>
          <leafValues>
            -1.8009962141513824e-01 2.3652255535125732e-01</leafValues></_>
        <_>
          <internalNodes>
            0 -1 585 2.3615526035428047e-02</internalNodes>
          <leafValues>
            -1.2043131887912750e-01 4.4657361507415771e-01</leafValues></_>
        <_>
          <internalNodes>
            0 -1 956 1.3472207356244326e-03</internalNodes>
          <leafValues>
            -1.7093412578105927e-01 2.8034079074859619e-01</leafValues></_>
        <_>
          <internalNodes>
            0 -1 1008 -2.8411084786057472e-03</internalNodes>
          <leafValues>
            3.1678757071495056e-01 -1.6004879772663116e-01</leafValues></_>
        <_>
          <internalNodes>
            0 -1 425 4.6298019587993622e-03</internalNodes>
          <leafValues>
            9.0252920985221863e-02 -5.7138466835021973e-01</leafValues></_>
        <_>
          <internalNodes>
            0 -1 960 1.6249147010967135e-03</internalNodes>
          <leafValues>
            1.2827058136463165e-01 -3.8487055897712708e-01</leafValues></_>
        <_>
          <internalNodes>
            0 -1 1046 -4.5057205716148019e-04</internalNodes>
          <leafValues>
            2.3714664578437805e-01 -2.1483553946018219e-01</leafValues></_>
        <_>
          <internalNodes>
            0 -1 1 -3.0558068305253983e-02</internalNodes>
          <leafValues>
            4.9580734968185425e-01 -9.5873720943927765e-02</leafValues></_>
        <_>
          <internalNodes>
            0 -1 480 1.7055969685316086e-02</internalNodes>
          <leafValues>
            -6.5030828118324280e-02 7.5732105970382690e-01</leafValues></_>
        <_>
          <internalNodes>
            0 -1 19 9.1466400772333145e-03</internalNodes>
          <leafValues>
            9.4918094575405121e-02 -5.5748295783996582e-01</leafValues></_>
        <_>
          <internalNodes>
            0 -1 678 -7.6663121581077576e-02</internalNodes>
          <leafValues>
            -1.6508440673351288e-01 3.4194955229759216e-01</leafValues></_>
        <_>
          <internalNodes>
            0 -1 542 3.7628341466188431e-02</internalNodes>
          <leafValues>
            9.1492794454097748e-02 -6.1388641595840454e-01</leafValues></_>
        <_>
          <internalNodes>
            0 -1 242 1.0345878079533577e-02</internalNodes>
          <leafValues>
            -7.8567765653133392e-02 7.8600108623504639e-01</leafValues></_></weakClassifiers></_>
    <!-- stage 18 -->
    <_>
      <maxWeakCount>27</maxWeakCount>
      <stageThreshold>-5.7761204242706299e-01</stageThreshold>
      <weakClassifiers>
        <_>
          <internalNodes>
            0 -1 583 -7.2681546211242676e-02</internalNodes>
          <leafValues>
            -5.2777779102325439e-01 3.6422413587570190e-01</leafValues></_>
        <_>
          <internalNodes>
            0 -1 895 -1.4365846291184425e-02</internalNodes>
          <leafValues>
            4.6368029713630676e-01 -7.7651582658290863e-02</leafValues></_>
        <_>
          <internalNodes>
            0 -1 710 1.5520881861448288e-02</internalNodes>
          <leafValues>
            -1.0812202095985413e-01 6.9725859165191650e-01</leafValues></_>
        <_>
          <internalNodes>
            0 -1 1021 -6.4025871688500047e-04</internalNodes>
          <leafValues>
            2.3260864615440369e-01 -2.7196201682090759e-01</leafValues></_>
        <_>
          <internalNodes>
            0 -1 503 1.3084750622510910e-02</internalNodes>
          <leafValues>
            1.4094507694244385e-01 -4.3338108062744141e-01</leafValues></_>
        <_>
          <internalNodes>
            0 -1 359 -3.2177413813769817e-03</internalNodes>
          <leafValues>
            5.6115072965621948e-01 -1.1881911754608154e-01</leafValues></_>
        <_>
          <internalNodes>
            0 -1 734 4.0084369480609894e-02</internalNodes>
          <leafValues>
            7.8082852065563202e-02 -6.7577409744262695e-01</leafValues></_>
        <_>
          <internalNodes>
            0 -1 810 1.4385113026946783e-03</internalNodes>
          <leafValues>
            -1.0225503891706467e-01 4.9277552962303162e-01</leafValues></_>
        <_>
          <internalNodes>
            0 -1 268 -1.2670332798734307e-03</internalNodes>
          <leafValues>
            -7.8660959005355835e-01 6.3589803874492645e-02</leafValues></_>
        <_>
          <internalNodes>
            0 -1 180 -5.7599716819822788e-03</internalNodes>
          <leafValues>
            -5.5033195018768311e-01 6.2457177788019180e-02</leafValues></_>
        <_>
          <internalNodes>
            0 -1 857 -5.1595070399343967e-03</internalNodes>
          <leafValues>
            -1.3097390532493591e-01 3.4114670753479004e-01</leafValues></_>
        <_>
          <internalNodes>
            0 -1 737 2.0244847983121872e-03</internalNodes>
          <leafValues>
            -9.6176087856292725e-02 5.1514041423797607e-01</leafValues></_>
        <_>
          <internalNodes>
            0 -1 211 5.6858384050428867e-03</internalNodes>
          <leafValues>
            -8.1812553107738495e-02 5.6963932514190674e-01</leafValues></_>
        <_>
          <internalNodes>
            0 -1 637 -6.3237026333808899e-03</internalNodes>
          <leafValues>
            -7.2949045896530151e-01 7.0841036736965179e-02</leafValues></_>
        <_>
          <internalNodes>
            0 -1 744 7.7971443533897400e-03</internalNodes>
          <leafValues>
            -1.3370999693870544e-01 3.6310240626335144e-01</leafValues></_>
        <_>
          <internalNodes>
            0 -1 968 1.1077190749347210e-02</internalNodes>
          <leafValues>
            9.0522587299346924e-02 -5.9611618518829346e-01</leafValues></_>
        <_>
          <internalNodes>
            0 -1 94 3.2789157703518867e-03</internalNodes>
          <leafValues>
            1.5725222229957581e-01 -2.9482287168502808e-01</leafValues></_>
        <_>
          <internalNodes>
            0 -1 198 -2.5464654900133610e-03</internalNodes>
          <leafValues>
            -7.2075647115707397e-01 5.8096684515476227e-02</leafValues></_>
        <_>
          <internalNodes>
            0 -1 864 6.8712849169969559e-03</internalNodes>
          <leafValues>
            -1.3904939591884613e-01 3.3462429046630859e-01</leafValues></_>
        <_>
          <internalNodes>
            0 -1 59 6.8591726012527943e-03</internalNodes>
          <leafValues>
            -9.2435143887996674e-02 4.3797445297241211e-01</leafValues></_>
        <_>
          <internalNodes>
            0 -1 571 1.7640225589275360e-02</internalNodes>
          <leafValues>
            -1.6205908358097076e-01 3.6445650458335876e-01</leafValues></_>
        <_>
          <internalNodes>
            0 -1 707 -4.6752025373280048e-03</internalNodes>
          <leafValues>
            2.6781088113784790e-01 -1.7848077416419983e-01</leafValues></_>
        <_>
          <internalNodes>
            0 -1 196 -6.9021910894662142e-04</internalNodes>
          <leafValues>
            2.8827437758445740e-01 -1.5629599988460541e-01</leafValues></_>
        <_>
          <internalNodes>
            0 -1 1095 -4.1491743177175522e-03</internalNodes>
          <leafValues>
            5.1636016368865967e-01 -7.6525457203388214e-02</leafValues></_>
        <_>
          <internalNodes>
            0 -1 881 -2.2261640988290310e-03</internalNodes>
          <leafValues>
            -6.1984145641326904e-01 7.2287641465663910e-02</leafValues></_>
        <_>
          <internalNodes>
            0 -1 990 3.0820616520941257e-03</internalNodes>
          <leafValues>
            -6.6901974380016327e-02 6.3720244169235229e-01</leafValues></_>
        <_>
          <internalNodes>
            0 -1 847 1.1613503098487854e-02</internalNodes>
          <leafValues>
            -6.7789793014526367e-02 5.4433923959732056e-01</leafValues></_></weakClassifiers></_>
    <!-- stage 19 -->
    <_>
      <maxWeakCount>29</maxWeakCount>
      <stageThreshold>-5.9721434116363525e-01</stageThreshold>
      <weakClassifiers>
        <_>
          <internalNodes>
            0 -1 385 -3.1586878001689911e-02</internalNodes>
          <leafValues>
            -5.9259258210659027e-02 4.3287670612335205e-01</leafValues></_>
        <_>
          <internalNodes>
            0 -1 804 -1.0601161979138851e-02</internalNodes>
          <leafValues>
            6.6355222463607788e-01 -7.2465501725673676e-02</leafValues></_>
        <_>
          <internalNodes>
            0 -1 945 2.1191090345382690e-03</internalNodes>
          <leafValues>
            -2.4098239839076996e-01 2.7222111821174622e-01</leafValues></_>
        <_>
          <internalNodes>
            0 -1 1140 -1.1243056505918503e-03</internalNodes>
          <leafValues>
            -4.6888306736946106e-01 1.0326845198869705e-01</leafValues></_>
        <_>
          <internalNodes>
            0 -1 430 -1.9634203054010868e-03</internalNodes>
          <leafValues>
            3.2411050796508789e-01 -1.5656442940235138e-01</leafValues></_>
        <_>
          <internalNodes>
            0 -1 1067 -7.1097575128078461e-03</internalNodes>
          <leafValues>
            4.9337634444236755e-01 -8.7539128959178925e-02</leafValues></_>
        <_>
          <internalNodes>
            0 -1 70 -6.6867545247077942e-02</internalNodes>
          <leafValues>
            3.7179774045944214e-01 -1.8217842280864716e-01</leafValues></_>
        <_>
          <internalNodes>
            0 -1 40 -2.8830129653215408e-02</internalNodes>
          <leafValues>
            -8.8981890678405762e-01 6.1156384646892548e-02</leafValues></_>
        <_>
          <internalNodes>
            0 -1 809 -1.8908350029960275e-03</internalNodes>
          <leafValues>
            4.7991716861724854e-01 -1.0783383995294571e-01</leafValues></_>
        <_>
          <internalNodes>
            0 -1 638 -1.3875570148229599e-02</internalNodes>
          <leafValues>
            6.9939696788787842e-01 -5.7865653187036514e-02</leafValues></_>
        <_>
          <internalNodes>
            0 -1 784 1.1332813650369644e-02</internalNodes>
          <leafValues>
            -1.5403626859188080e-01 3.2299795746803284e-01</leafValues></_>
        <_>
          <internalNodes>
            0 -1 64 1.9289221614599228e-02</internalNodes>
          <leafValues>
            -9.0119712054729462e-02 5.7583951950073242e-01</leafValues></_>
        <_>
          <internalNodes>
            0 -1 18 5.4537029936909676e-03</internalNodes>
          <leafValues>
            9.6571594476699829e-02 -5.8390700817108154e-01</leafValues></_>
        <_>
          <internalNodes>
            0 -1 113 5.6000235490500927e-03</internalNodes>
          <leafValues>
            6.5709628164768219e-02 -6.7872232198715210e-01</leafValues></_>
        <_>
          <internalNodes>
            0 -1 170 -2.1976158022880554e-02</internalNodes>
          <leafValues>
            -5.2161943912506104e-01 8.6697869002819061e-02</leafValues></_>
        <_>
          <internalNodes>
            0 -1 1003 2.1868622861802578e-03</internalNodes>
          <leafValues>
            -2.0200218260288239e-01 2.4758905172348022e-01</leafValues></_>
        <_>
          <internalNodes>
            0 -1 906 -1.0811612010002136e-02</internalNodes>
          <leafValues>
            4.7958418726921082e-01 -1.1994618922472000e-01</leafValues></_>
        <_>
          <internalNodes>
            0 -1 1042 7.5199436396360397e-03</internalNodes>
          <leafValues>
            -7.7193014323711395e-02 6.2397569417953491e-01</leafValues></_>
        <_>
          <internalNodes>
            0 -1 665 -6.6487379372119904e-03</internalNodes>
          <leafValues>
            8.5720247030258179e-01 -4.1543602943420410e-02</leafValues></_>
        <_>
          <internalNodes>
            0 -1 624 -3.5597579553723335e-03</internalNodes>
          <leafValues>
            2.5995758175849915e-01 -1.8087168037891388e-01</leafValues></_>
        <_>
          <internalNodes>
            0 -1 616 4.2387126013636589e-03</internalNodes>
          <leafValues>
            -7.7076189219951630e-02 6.3037556409835815e-01</leafValues></_>
        <_>
          <internalNodes>
            0 -1 803 3.0359891243278980e-03</internalNodes>
          <leafValues>
            -9.5022827386856079e-02 4.6694329380989075e-01</leafValues></_>
        <_>
          <internalNodes>
            0 -1 469 9.8888482898473740e-03</internalNodes>
          <leafValues>
            1.2838436663150787e-01 -4.2032977938652039e-01</leafValues></_>
        <_>
          <internalNodes>
            0 -1 1131 1.3613581540994346e-04</internalNodes>
          <leafValues>
            1.4931969344615936e-01 -3.1857579946517944e-01</leafValues></_>
        <_>
          <internalNodes>
            0 -1 907 1.1957612819969654e-02</internalNodes>
          <leafValues>
            -1.5448467433452606e-01 3.3023038506507874e-01</leafValues></_>
        <_>
          <internalNodes>
            0 -1 629 -1.2294334010221064e-04</internalNodes>
          <leafValues>
            2.6175612211227417e-01 -1.8279780447483063e-01</leafValues></_>
        <_>
          <internalNodes>
            0 -1 399 -7.5967041775584221e-03</internalNodes>
          <leafValues>
            4.8950651288032532e-01 -1.0716726630926132e-01</leafValues></_>
        <_>
          <internalNodes>
            0 -1 312 -1.1890537105500698e-02</internalNodes>
          <leafValues>
            -6.8693286180496216e-01 8.5854977369308472e-02</leafValues></_>
        <_>
          <internalNodes>
            0 -1 90 -1.6587516292929649e-03</internalNodes>
          <leafValues>
            -3.1539848446846008e-01 1.5234945714473724e-01</leafValues></_></weakClassifiers></_>
    <!-- stage 20 -->
    <_>
      <maxWeakCount>32</maxWeakCount>
      <stageThreshold>-6.1086684465408325e-01</stageThreshold>
      <weakClassifiers>
        <_>
          <internalNodes>
            0 -1 132 8.9631110429763794e-02</internalNodes>
          <leafValues>
            3.7486094236373901e-01 -3.6633664369583130e-01</leafValues></_>
        <_>
          <internalNodes>
            0 -1 158 4.6125642955303192e-02</internalNodes>
          <leafValues>
            1.4922195672988892e-01 -4.4535905122756958e-01</leafValues></_>
        <_>
          <internalNodes>
            0 -1 162 5.4477222263813019e-02</internalNodes>
          <leafValues>
            7.1289300918579102e-02 -6.7588728666305542e-01</leafValues></_>
        <_>
          <internalNodes>
            0 -1 241 -4.4606339186429977e-02</internalNodes>
          <leafValues>
